<?xml version="1.0"?>
<opencv_storage>
<cascade>
  <stageType>BOOST</stageType>
  <featureType>HAAR</featureType>
  <height>24</height>
  <width>24</width>
  <stageParams>
    <boostType>GAB</boostType>
    <minHitRate>9.9500000476837158e-01</minHitRate>
    <maxFalseAlarm>5.0000000000000000e-01</maxFalseAlarm>
    <weightTrimRate>9.4999998807907104e-01</weightTrimRate>
    <maxDepth>1</maxDepth>
    <maxWeakCount>100</maxWeakCount></stageParams>
  <featureParams>
    <maxCatCount>0</maxCatCount>
    <featSize>1</featSize>
    <mode>BASIC</mode></featureParams>
  <stageNum>30</stageNum>
  <stages>
    <!-- stage 0 -->
    <_>
      <maxWeakCount>9</maxWeakCount>
      <stageThreshold>-9.8445713520050049e-01</stageThreshold>
      <weakClassifiers>
        <_>
          <internalNodes>
            0 -1 262 -2.5778569281101227e-02</internalNodes>
          <leafValues>
            8.1328320503234863e-01 -5.6678700447082520e-01</leafValues></_>
        <_>
          <internalNodes>
            0 -1 294 1.1491434276103973e-01</internalNodes>
          <leafValues>
            -4.5339515805244446e-01 7.4751782417297363e-01</leafValues></_>
        <_>
          <internalNodes>
            0 -1 28 7.3641515336930752e-03</internalNodes>
          <leafValues>
            3.0964374542236328e-01 -7.4545311927795410e-01</leafValues></_>
        <_>
          <internalNodes>
            0 -1 467 8.3921855548396707e-05</internalNodes>
          <leafValues>
            2.5663527846336365e-01 -6.8046009540557861e-01</leafValues></_>
        <_>
          <internalNodes>
            0 -1 99 -2.8955697780475020e-04</internalNodes>
          <leafValues>
            -7.1133327484130859e-01 2.0403666794300079e-01</leafValues></_>
        <_>
          <internalNodes>
            0 -1 224 5.3687565028667450e-02</internalNodes>
          <leafValues>
            -2.1418578922748566e-01 8.4101605415344238e-01</leafValues></_>
        <_>
          <internalNodes>
            0 -1 468 -2.4221304920502007e-04</internalNodes>
          <leafValues>
            -5.2169215679168701e-01 3.2628911733627319e-01</leafValues></_>
        <_>
          <internalNodes>
            0 -1 427 3.3062999136745930e-04</internalNodes>
          <leafValues>
            2.4496045708656311e-01 -6.2086629867553711e-01</leafValues></_>
        <_>
          <internalNodes>
            0 -1 197 -8.5070729255676270e-02</internalNodes>
          <leafValues>
            7.8346562385559082e-01 -2.2582767903804779e-01</leafValues></_></weakClassifiers></_>
    <!-- stage 1 -->
    <_>
      <maxWeakCount>8</maxWeakCount>
      <stageThreshold>-1.2915040254592896e+00</stageThreshold>
      <weakClassifiers>
        <_>
          <internalNodes>
            0 -1 327 7.0838890969753265e-02</internalNodes>
          <leafValues>
            -4.2513662576675415e-01 8.0423277616500854e-01</leafValues></_>
        <_>
          <internalNodes>
            0 -1 159 -3.5987816751003265e-02</internalNodes>
          <leafValues>
            6.5104538202285767e-01 -4.6426483988761902e-01</leafValues></_>
        <_>
          <internalNodes>
            0 -1 470 -2.4394232605118304e-04</internalNodes>
          <leafValues>
            -6.9915539026260376e-01 3.1586271524429321e-01</leafValues></_>
        <_>
          <internalNodes>
            0 -1 470 3.3841782715171576e-04</internalNodes>
          <leafValues>
            2.4579626321792603e-01 -7.3979568481445313e-01</leafValues></_>
        <_>
          <internalNodes>
            0 -1 381 2.3360604245681316e-04</internalNodes>
          <leafValues>
            2.2919929027557373e-01 -6.6548573970794678e-01</leafValues></_>
        <_>
          <internalNodes>
            0 -1 554 8.7775355204939842e-03</internalNodes>
          <leafValues>
            -3.7739151716232300e-01 4.8125791549682617e-01</leafValues></_>
        <_>
          <internalNodes>
            0 -1 258 -3.6001036642119288e-04</internalNodes>
          <leafValues>
            -7.2846323251724243e-01 2.3619857430458069e-01</leafValues></_>
        <_>
          <internalNodes>
            0 -1 199 -4.3828565627336502e-02</internalNodes>
          <leafValues>
            7.8833913803100586e-01 -2.5737497210502625e-01</leafValues></_></weakClassifiers></_>
    <!-- stage 2 -->
    <_>
      <maxWeakCount>7</maxWeakCount>
      <stageThreshold>-6.3247030973434448e-01</stageThreshold>
      <weakClassifiers>
        <_>
          <internalNodes>
            0 -1 312 -6.9769792258739471e-02</internalNodes>
          <leafValues>
            7.8242677450180054e-01 -2.9707956314086914e-01</leafValues></_>
        <_>
          <internalNodes>
            0 -1 208 2.0840059965848923e-02</internalNodes>
          <leafValues>
            -6.0631525516510010e-01 4.3255102634429932e-01</leafValues></_>
        <_>
          <internalNodes>
            0 -1 348 -2.4532798677682877e-02</internalNodes>
          <leafValues>
            7.5675421953201294e-01 -2.7552551031112671e-01</leafValues></_>
        <_>
          <internalNodes>
            0 -1 278 -1.0924423113465309e-03</internalNodes>
          <leafValues>
            -7.6302522420883179e-01 2.7967140078544617e-01</leafValues></_>
        <_>
          <internalNodes>
            0 -1 278 7.3839997639879584e-04</internalNodes>
          <leafValues>
            2.3478615283966064e-01 -7.2808754444122314e-01</leafValues></_>
        <_>
          <internalNodes>
            0 -1 372 -1.0769515298306942e-02</internalNodes>
          <leafValues>
            6.8721002340316772e-01 -3.0241751670837402e-01</leafValues></_>
        <_>
          <internalNodes>
            0 -1 402 -2.0512599439825863e-04</internalNodes>
          <leafValues>
            -6.3747346401214600e-01 3.3440998196601868e-01</leafValues></_></weakClassifiers></_>
    <!-- stage 3 -->
    <_>
      <maxWeakCount>11</maxWeakCount>
      <stageThreshold>-1.1909254789352417e+00</stageThreshold>
      <weakClassifiers>
        <_>
          <internalNodes>
            0 -1 406 1.6306757926940918e-02</internalNodes>
          <leafValues>
            -4.6203345060348511e-01 7.1878790855407715e-01</leafValues></_>
        <_>
          <internalNodes>
            0 -1 243 -8.8180877268314362e-02</internalNodes>
          <leafValues>
            7.4182045459747314e-01 -2.3016716539859772e-01</leafValues></_>
        <_>
          <internalNodes>
            0 -1 100 -2.8897725860588253e-04</internalNodes>
          <leafValues>
            -6.0692173242568970e-01 3.3438035845756531e-01</leafValues></_>
        <_>
          <internalNodes>
            0 -1 112 -4.3237727368250489e-04</internalNodes>
          <leafValues>
            -6.2205761671066284e-01 2.7170348167419434e-01</leafValues></_>
        <_>
          <internalNodes>
            0 -1 259 -2.7623493224382401e-03</internalNodes>
          <leafValues>
            -7.1053153276443481e-01 2.1542389690876007e-01</leafValues></_>
        <_>
          <internalNodes>
            0 -1 340 -1.1883272964041680e-04</internalNodes>
          <leafValues>
            -6.2920987606048584e-01 1.9461788237094879e-01</leafValues></_>
        <_>
          <internalNodes>
            0 -1 316 -1.3163039088249207e-01</internalNodes>
          <leafValues>
            8.6774772405624390e-01 -1.7920486629009247e-01</leafValues></_>
        <_>
          <internalNodes>
            0 -1 364 -1.5051221998874098e-04</internalNodes>
          <leafValues>
            -5.7158696651458740e-01 2.5843998789787292e-01</leafValues></_>
        <_>
          <internalNodes>
            0 -1 514 -2.2042769938707352e-02</internalNodes>
          <leafValues>
            6.7257308959960938e-01 -1.9902363419532776e-01</leafValues></_>
        <_>
          <internalNodes>
            0 -1 446 -3.0257724574767053e-04</internalNodes>
          <leafValues>
            -6.1256951093673706e-01 2.2419598698616028e-01</leafValues></_>
        <_>
          <internalNodes>
            0 -1 448 -1.1793007142841816e-03</internalNodes>
          <leafValues>
            -8.1113851070404053e-01 1.3052535057067871e-01</leafValues></_></weakClassifiers></_>
    <!-- stage 4 -->
    <_>
      <maxWeakCount>10</maxWeakCount>
      <stageThreshold>-1.1305984258651733e+00</stageThreshold>
      <weakClassifiers>
        <_>
          <internalNodes>
            0 -1 292 1.4086815714836121e-01</internalNodes>
          <leafValues>
            -4.6774193644523621e-01 6.9815802574157715e-01</leafValues></_>
        <_>
          <internalNodes>
            0 -1 263 -3.5870667546987534e-02</internalNodes>
          <leafValues>
            4.6609035134315491e-01 -4.6798154711723328e-01</leafValues></_>
        <_>
          <internalNodes>
            0 -1 28 -1.2725951150059700e-02</internalNodes>
          <leafValues>
            -9.1059273481369019e-01 2.0971649885177612e-01</leafValues></_>
        <_>
          <internalNodes>
            0 -1 344 1.3440407346934080e-03</internalNodes>
          <leafValues>
            1.4502510428428650e-01 -8.5580915212631226e-01</leafValues></_>
        <_>
          <internalNodes>
            0 -1 33 5.2860414981842041e-01</internalNodes>
          <leafValues>
            1.5823915600776672e-01 -8.6430519819259644e-01</leafValues></_>
        <_>
          <internalNodes>
            0 -1 369 4.9600154161453247e-03</internalNodes>
          <leafValues>
            1.3773338496685028e-01 -8.9135754108428955e-01</leafValues></_>
        <_>
          <internalNodes>
            0 -1 559 -1.0223151184618473e-03</internalNodes>
          <leafValues>
            -8.6711382865905762e-01 1.3094148039817810e-01</leafValues></_>
        <_>
          <internalNodes>
            0 -1 506 -2.0212950767017901e-04</internalNodes>
          <leafValues>
            -6.1131960153579712e-01 2.2879134118556976e-01</leafValues></_>
        <_>
          <internalNodes>
            0 -1 462 -1.2070711818523705e-04</internalNodes>
          <leafValues>
            -5.0560557842254639e-01 2.2870239615440369e-01</leafValues></_>
        <_>
          <internalNodes>
            0 -1 543 -1.7518993699923158e-03</internalNodes>
          <leafValues>
            -8.2793134450912476e-01 1.4039453864097595e-01</leafValues></_></weakClassifiers></_>
    <!-- stage 5 -->
    <_>
      <maxWeakCount>8</maxWeakCount>
      <stageThreshold>-1.1890915632247925e+00</stageThreshold>
      <weakClassifiers>
        <_>
          <internalNodes>
            0 -1 284 -1.3000206090509892e-02</internalNodes>
          <leafValues>
            6.9635856151580811e-01 -6.4797508716583252e-01</leafValues></_>
        <_>
          <internalNodes>
            0 -1 38 -5.0187711603939533e-03</internalNodes>
          <leafValues>
            7.4794024229049683e-01 -3.8961249589920044e-01</leafValues></_>
        <_>
          <internalNodes>
            0 -1 212 1.6174327582120895e-02</internalNodes>
          <leafValues>
            -3.2739251852035522e-01 4.9574118852615356e-01</leafValues></_>
        <_>
          <internalNodes>
            0 -1 44 -1.2630978226661682e-01</internalNodes>
          <leafValues>
            5.0436204671859741e-01 -2.8195032477378845e-01</leafValues></_>
        <_>
          <internalNodes>
            0 -1 28 7.4600246734917164e-03</internalNodes>
          <leafValues>
            1.7581939697265625e-01 -7.7942103147506714e-01</leafValues></_>
        <_>
          <internalNodes>
            0 -1 355 1.8054593354463577e-02</internalNodes>
          <leafValues>
            -3.1653493642807007e-01 5.7681781053543091e-01</leafValues></_>
        <_>
          <internalNodes>
            0 -1 549 -2.7666976675391197e-03</internalNodes>
          <leafValues>
            4.9245220422744751e-01 -2.5729629397392273e-01</leafValues></_>
        <_>
          <internalNodes>
            0 -1 215 -1.6744052991271019e-03</internalNodes>
          <leafValues>
            -7.9178363084793091e-01 1.6798992455005646e-01</leafValues></_></weakClassifiers></_>
    <!-- stage 6 -->
    <_>
      <maxWeakCount>11</maxWeakCount>
      <stageThreshold>-1.2611865997314453e+00</stageThreshold>
      <weakClassifiers>
        <_>
          <internalNodes>
            0 -1 9 -3.4257874358445406e-03</internalNodes>
          <leafValues>
            7.9220777750015259e-01 -2.6032662391662598e-01</leafValues></_>
        <_>
          <internalNodes>
            0 -1 481 -2.8571572620421648e-03</internalNodes>
          <leafValues>
            4.7295913100242615e-01 -4.3683218955993652e-01</leafValues></_>
        <_>
          <internalNodes>
            0 -1 566 7.4228709563612938e-03</internalNodes>
          <leafValues>
            -2.6351147890090942e-01 6.6530460119247437e-01</leafValues></_>
        <_>
          <internalNodes>
            0 -1 21 -3.4704092890024185e-02</internalNodes>
          <leafValues>
            4.1869240999221802e-01 -3.7078991532325745e-01</leafValues></_>
        <_>
          <internalNodes>
            0 -1 352 2.2776674479246140e-02</internalNodes>
          <leafValues>
            -3.0425807833671570e-01 4.9446037411689758e-01</leafValues></_>
        <_>
          <internalNodes>
            0 -1 606 2.2249494213610888e-04</internalNodes>
          <leafValues>
            2.6119568943977356e-01 -5.4497003555297852e-01</leafValues></_>
        <_>
          <internalNodes>
            0 -1 373 6.7377733066678047e-03</internalNodes>
          <leafValues>
            -1.9809132814407349e-01 7.1586740016937256e-01</leafValues></_>
        <_>
          <internalNodes>
            0 -1 607 -8.3374652604106814e-05</internalNodes>
          <leafValues>
            -4.4794976711273193e-01 3.1377112865447998e-01</leafValues></_>
        <_>
          <internalNodes>
            0 -1 394 -2.3369530681520700e-03</internalNodes>
          <leafValues>
            6.6975170373916626e-01 -1.9253049790859222e-01</leafValues></_>
        <_>
          <internalNodes>
            0 -1 558 -8.6515450675506145e-05</internalNodes>
          <leafValues>
            -6.2169164419174194e-01 2.4075220525264740e-01</leafValues></_>
        <_>
          <internalNodes>
            0 -1 392 1.1872011236846447e-03</internalNodes>
          <leafValues>
            -2.9693415760993958e-01 4.5847225189208984e-01</leafValues></_></weakClassifiers></_>
    <!-- stage 7 -->
    <_>
      <maxWeakCount>16</maxWeakCount>
      <stageThreshold>-1.1351279020309448e+00</stageThreshold>
      <weakClassifiers>
        <_>
          <internalNodes>
            0 -1 177 1.6587300226092339e-02</internalNodes>
          <leafValues>
            -6.1073827743530273e-01 5.5555558204650879e-01</leafValues></_>
        <_>
          <internalNodes>
            0 -1 38 -8.1226062029600143e-03</internalNodes>
          <leafValues>
            6.1344897747039795e-01 -3.0074080824851990e-01</leafValues></_>
        <_>
          <internalNodes>
            0 -1 580 1.2009462807327509e-04</internalNodes>
          <leafValues>
            3.2518881559371948e-01 -5.0996279716491699e-01</leafValues></_>
        <_>
          <internalNodes>
            0 -1 116 5.6096483021974564e-03</internalNodes>
          <leafValues>
            1.8532095849514008e-01 -7.8913658857345581e-01</leafValues></_>
        <_>
          <internalNodes>
            0 -1 25 -3.8388753309845924e-03</internalNodes>
          <leafValues>
            -7.3559594154357910e-01 2.0327693223953247e-01</leafValues></_>
        <_>
          <internalNodes>
            0 -1 449 2.2338517010211945e-02</internalNodes>
          <leafValues>
            -4.2190879583358765e-01 3.0938082933425903e-01</leafValues></_>
        <_>
          <internalNodes>
            0 -1 482 1.3072122237645090e-04</internalNodes>
          <leafValues>
            2.2219496965408325e-01 -5.6713497638702393e-01</leafValues></_>
        <_>
          <internalNodes>
            0 -1 418 -3.2325463835150003e-03</internalNodes>
          <leafValues>
            6.7226463556289673e-01 -2.1923144161701202e-01</leafValues></_>
        <_>
          <internalNodes>
            0 -1 596 -3.7021323805674911e-05</internalNodes>
          <leafValues>
            -4.0818834304809570e-01 2.8690418601036072e-01</leafValues></_>
        <_>
          <internalNodes>
            0 -1 417 3.2818384934216738e-03</internalNodes>
          <leafValues>
            -1.8458232283592224e-01 7.1727448701858521e-01</leafValues></_>
        <_>
          <internalNodes>
            0 -1 447 -1.8546314095146954e-04</internalNodes>
          <leafValues>
            -4.0158629417419434e-01 2.8754219412803650e-01</leafValues></_>
        <_>
          <internalNodes>
            0 -1 229 -3.4754311200231314e-03</internalNodes>
          <leafValues>
            5.4846709966659546e-01 -2.1488709747791290e-01</leafValues></_>
        <_>
          <internalNodes>
            0 -1 5 1.8111597746610641e-02</internalNodes>
          <leafValues>
            1.9733244180679321e-01 -7.5133740901947021e-01</leafValues></_>
        <_>
          <internalNodes>
            0 -1 126 -1.5396974049508572e-02</internalNodes>
          <leafValues>
            6.3555485010147095e-01 -1.9629926979541779e-01</leafValues></_>
        <_>
          <internalNodes>
            0 -1 216 7.6259402558207512e-03</internalNodes>
          <leafValues>
            1.7691293358802795e-01 -6.1135125160217285e-01</leafValues></_>
        <_>
          <internalNodes>
            0 -1 341 -3.7728366442024708e-03</internalNodes>
          <leafValues>
            -8.2882332801818848e-01 1.0103115439414978e-01</leafValues></_></weakClassifiers></_>
    <!-- stage 8 -->
    <_>
      <maxWeakCount>14</maxWeakCount>
      <stageThreshold>-1.0533468723297119e+00</stageThreshold>
      <weakClassifiers>
        <_>
          <internalNodes>
            0 -1 595 -8.9850218500941992e-05</internalNodes>
          <leafValues>
            -5.2215796709060669e-01 5.7547169923782349e-01</leafValues></_>
        <_>
          <internalNodes>
            0 -1 595 9.1444235295057297e-05</internalNodes>
          <leafValues>
            3.7988016009330750e-01 -6.2998282909393311e-01</leafValues></_>
        <_>
          <internalNodes>
            0 -1 321 1.3164946436882019e-01</internalNodes>
          <leafValues>
            -5.6831407546997070e-01 3.4410113096237183e-01</leafValues></_>
        <_>
          <internalNodes>
            0 -1 367 1.7040550301317126e-04</internalNodes>
          <leafValues>
            2.2113028168678284e-01 -6.2540555000305176e-01</leafValues></_>
        <_>
          <internalNodes>
            0 -1 367 -1.2198161130072549e-04</internalNodes>
          <leafValues>
            -5.8770495653152466e-01 2.6745507121086121e-01</leafValues></_>
        <_>
          <internalNodes>
            0 -1 339 -1.7698857118375599e-04</internalNodes>
          <leafValues>
            -7.3910671472549438e-01 1.4576184749603271e-01</leafValues></_>
        <_>
          <internalNodes>
            0 -1 602 2.5521035422571003e-04</internalNodes>
          <leafValues>
            1.6494938731193542e-01 -6.2237828969955444e-01</leafValues></_>
        <_>
          <internalNodes>
            0 -1 602 -9.6949530416168272e-05</internalNodes>
          <leafValues>
            -4.9757939577102661e-01 2.2485688328742981e-01</leafValues></_>
        <_>
          <internalNodes>
            0 -1 119 5.4692208766937256e-01</internalNodes>
          <leafValues>
            1.0476189106702805e-01 -9.0234082937240601e-01</leafValues></_>
        <_>
          <internalNodes>
            0 -1 560 7.4601313099265099e-03</internalNodes>
          <leafValues>
            -2.6416674256324768e-01 4.3527910113334656e-01</leafValues></_>
        <_>
          <internalNodes>
            0 -1 18 -4.3145529925823212e-03</internalNodes>
          <leafValues>
            -7.3352241516113281e-01 1.1334607005119324e-01</leafValues></_>
        <_>
          <internalNodes>
            0 -1 442 -1.2099277228116989e-02</internalNodes>
          <leafValues>
            7.7897673845291138e-01 -1.4465342462062836e-01</leafValues></_>
        <_>
          <internalNodes>
            0 -1 309 6.2685562297701836e-03</internalNodes>
          <leafValues>
            1.7947889864444733e-01 -6.4574342966079712e-01</leafValues></_>
        <_>
          <internalNodes>
            0 -1 309 -4.2018300155177712e-04</internalNodes>
          <leafValues>
            -5.1060897111892700e-01 1.9961979985237122e-01</leafValues></_></weakClassifiers></_>
    <!-- stage 9 -->
    <_>
      <maxWeakCount>17</maxWeakCount>
      <stageThreshold>-1.1553330421447754e+00</stageThreshold>
      <weakClassifiers>
        <_>
          <internalNodes>
            0 -1 356 5.0348527729511261e-02</internalNodes>
          <leafValues>
            -3.3773088455200195e-01 6.4889156818389893e-01</leafValues></_>
        <_>
          <internalNodes>
            0 -1 12 -6.4040264114737511e-03</internalNodes>
          <leafValues>
            5.2556520700454712e-01 -2.9091346263885498e-01</leafValues></_>
        <_>
          <internalNodes>
            0 -1 452 3.6528497934341431e-02</internalNodes>
          <leafValues>
            -3.6970624327659607e-01 4.0075632929801941e-01</leafValues></_>
        <_>
          <internalNodes>
            0 -1 598 3.0328318825922906e-04</internalNodes>
          <leafValues>
            1.7096729576587677e-01 -6.9293987751007080e-01</leafValues></_>
        <_>
          <internalNodes>
            0 -1 13 -7.8200770076364279e-05</internalNodes>
          <leafValues>
            -5.1850390434265137e-01 1.9404548406600952e-01</leafValues></_>
        <_>
          <internalNodes>
            0 -1 565 1.1654414236545563e-02</internalNodes>
          <leafValues>
            -2.0343436300754547e-01 5.3881198167800903e-01</leafValues></_>
        <_>
          <internalNodes>
            0 -1 544 -9.3517919594887644e-05</internalNodes>
          <leafValues>
            -6.3563466072082520e-01 1.4857614040374756e-01</leafValues></_>
        <_>
          <internalNodes>
            0 -1 599 -9.5435971161350608e-05</internalNodes>
          <leafValues>
            -5.1085001230239868e-01 1.5666258335113525e-01</leafValues></_>
        <_>
          <internalNodes>
            0 -1 54 -3.4280337393283844e-02</internalNodes>
          <leafValues>
            3.7440720200538635e-01 -2.2237844765186310e-01</leafValues></_>
        <_>
          <internalNodes>
            0 -1 366 5.3352173417806625e-03</internalNodes>
          <leafValues>
            -1.0107657313346863e-01 8.5934329032897949e-01</leafValues></_>
        <_>
          <internalNodes>
            0 -1 91 8.5895527154207230e-03</internalNodes>
          <leafValues>
            -3.4332886338233948e-01 2.4634857475757599e-01</leafValues></_>
        <_>
          <internalNodes>
            0 -1 142 7.5728545198217034e-05</internalNodes>
          <leafValues>
            2.4310567975044250e-01 -3.9253884553909302e-01</leafValues></_>
        <_>
          <internalNodes>
            0 -1 368 -8.7989377789199352e-04</internalNodes>
          <leafValues>
            -6.7014181613922119e-01 1.2072273343801498e-01</leafValues></_>
        <_>
          <internalNodes>
            0 -1 415 1.0088818147778511e-02</internalNodes>
          <leafValues>
            -1.8933919072151184e-01 4.5047926902770996e-01</leafValues></_>
        <_>
          <internalNodes>
            0 -1 363 1.1648656800389290e-04</internalNodes>
          <leafValues>
            2.4171958863735199e-01 -3.5510423779487610e-01</leafValues></_>
        <_>
          <internalNodes>
            0 -1 251 1.5150853432714939e-02</internalNodes>
          <leafValues>
            -1.3475742936134338e-01 6.2954002618789673e-01</leafValues></_>
        <_>
          <internalNodes>
            0 -1 98 2.2389912046492100e-03</internalNodes>
          <leafValues>
            -3.5806092619895935e-01 2.4703593552112579e-01</leafValues></_></weakClassifiers></_>
    <!-- stage 10 -->
    <_>
      <maxWeakCount>18</maxWeakCount>
      <stageThreshold>-1.0014263391494751e+00</stageThreshold>
      <weakClassifiers>
        <_>
          <internalNodes>
            0 -1 227 1.0422921180725098e-01</internalNodes>
          <leafValues>
            -5.7081544399261475e-01 5.5736869573593140e-01</leafValues></_>
        <_>
          <internalNodes>
            0 -1 245 -4.8974454402923584e-02</internalNodes>
          <leafValues>
            4.2463436722755432e-01 -3.6678922176361084e-01</leafValues></_>
        <_>
          <internalNodes>
            0 -1 308 -9.4330091087613255e-05</internalNodes>
          <leafValues>
            -6.4142030477523804e-01 2.0613662898540497e-01</leafValues></_>
        <_>
          <internalNodes>
            0 -1 308 2.0782003412023187e-04</internalNodes>
          <leafValues>
            2.4449881911277771e-01 -6.1310011148452759e-01</leafValues></_>
        <_>
          <internalNodes>
            0 -1 24 -2.4104160256683826e-03</internalNodes>
          <leafValues>
            -6.4305162429809570e-01 1.3385021686553955e-01</leafValues></_>
        <_>
          <internalNodes>
            0 -1 282 -1.6249988228082657e-02</internalNodes>
          <leafValues>
            5.5253356695175171e-01 -1.7988985776901245e-01</leafValues></_>
        <_>
          <internalNodes>
            0 -1 242 1.7375469207763672e-02</internalNodes>
          <leafValues>
            -2.3262509703636169e-01 4.1021260619163513e-01</leafValues></_>
        <_>
          <internalNodes>
            0 -1 468 -8.4970350144430995e-05</internalNodes>
          <leafValues>
            -4.6276679635047913e-01 2.4768008291721344e-01</leafValues></_>
        <_>
          <internalNodes>
            0 -1 484 5.8484729379415512e-03</internalNodes>
          <leafValues>
            -4.1081506013870239e-01 1.9991166889667511e-01</leafValues></_>
        <_>
          <internalNodes>
            0 -1 550 7.8959472011774778e-04</internalNodes>
          <leafValues>
            1.1321861296892166e-01 -7.1683895587921143e-01</leafValues></_>
        <_>
          <internalNodes>
            0 -1 396 -4.6881099115125835e-04</internalNodes>
          <leafValues>
            5.6542217731475830e-01 -1.7796340584754944e-01</leafValues></_>
        <_>
          <internalNodes>
            0 -1 64 1.9762236624956131e-03</internalNodes>
          <leafValues>
            1.3802823424339294e-01 -6.2172561883926392e-01</leafValues></_>
        <_>
          <internalNodes>
            0 -1 326 1.0260158887831494e-05</internalNodes>
          <leafValues>
            -2.6340109109878540e-01 3.0784258246421814e-01</leafValues></_>
        <_>
          <internalNodes>
            0 -1 503 1.3405251083895564e-03</internalNodes>
          <leafValues>
            2.2352468967437744e-01 -3.9938685297966003e-01</leafValues></_>
        <_>
          <internalNodes>
            0 -1 98 5.7928748428821564e-03</internalNodes>
          <leafValues>
            -3.4094715118408203e-01 2.2164852917194366e-01</leafValues></_>
        <_>
          <internalNodes>
            0 -1 507 6.3930943724699318e-05</internalNodes>
          <leafValues>
            1.8041074275970459e-01 -4.5871937274932861e-01</leafValues></_>
        <_>
          <internalNodes>
            0 -1 64 -1.1032002512365580e-03</internalNodes>
          <leafValues>
            -5.2055346965789795e-01 1.5855757892131805e-01</leafValues></_>
        <_>
          <internalNodes>
            0 -1 588 2.0471721887588501e-02</internalNodes>
          <leafValues>
            8.4325186908245087e-02 -7.9212027788162231e-01</leafValues></_></weakClassifiers></_>
    <!-- stage 11 -->
    <_>
      <maxWeakCount>18</maxWeakCount>
      <stageThreshold>-9.8414677381515503e-01</stageThreshold>
      <weakClassifiers>
        <_>
          <internalNodes>
            0 -1 22 -1.3651873916387558e-02</internalNodes>
          <leafValues>
            5.9468436241149902e-01 -3.9774557948112488e-01</leafValues></_>
        <_>
          <internalNodes>
            0 -1 132 7.1741841733455658e-02</internalNodes>
          <leafValues>
            -2.9775226116180420e-01 5.2426260709762573e-01</leafValues></_>
        <_>
          <internalNodes>
            0 -1 571 1.0728598572313786e-03</internalNodes>
          <leafValues>
            -4.3405276536941528e-01 3.1301692128181458e-01</leafValues></_>
        <_>
          <internalNodes>
            0 -1 169 5.4353345185518265e-03</internalNodes>
          <leafValues>
            -2.7878746390342712e-01 3.5235404968261719e-01</leafValues></_>
        <_>
          <internalNodes>
            0 -1 428 -5.2862445591017604e-04</internalNodes>
          <leafValues>
            -6.9483488798141479e-01 1.4711992442607880e-01</leafValues></_>
        <_>
          <internalNodes>
            0 -1 413 2.1007545292377472e-02</internalNodes>
          <leafValues>
            -3.8370326161384583e-01 2.3403713107109070e-01</leafValues></_>
        <_>
          <internalNodes>
            0 -1 116 5.8705527335405350e-03</internalNodes>
          <leafValues>
            1.9636924564838409e-01 -7.3538184165954590e-01</leafValues></_>
        <_>
          <internalNodes>
            0 -1 32 5.2919358015060425e-01</internalNodes>
          <leafValues>
            8.6142763495445251e-02 -8.0482816696166992e-01</leafValues></_>
        <_>
          <internalNodes>
            0 -1 37 -6.1599481850862503e-03</internalNodes>
          <leafValues>
            3.8777014613151550e-01 -2.3703518509864807e-01</leafValues></_>
        <_>
          <internalNodes>
            0 -1 492 -5.7897952501662076e-05</internalNodes>
          <leafValues>
            -5.1936250925064087e-01 1.4972937107086182e-01</leafValues></_>
        <_>
          <internalNodes>
            0 -1 82 -8.5504245362244546e-05</internalNodes>
          <leafValues>
            -4.5296481251716614e-01 1.6687184572219849e-01</leafValues></_>
        <_>
          <internalNodes>
            0 -1 397 -4.5521724969148636e-03</internalNodes>
          <leafValues>
            6.0625529289245605e-01 -1.3900540769100189e-01</leafValues></_>
        <_>
          <internalNodes>
            0 -1 273 1.2218949850648642e-03</internalNodes>
          <leafValues>
            -2.0290255546569824e-01 3.4878310561180115e-01</leafValues></_>
        <_>
          <internalNodes>
            0 -1 253 -4.4650714844465256e-03</internalNodes>
          <leafValues>
            4.0684583783149719e-01 -2.2745412588119507e-01</leafValues></_>
        <_>
          <internalNodes>
            0 -1 479 7.2741619078442454e-05</internalNodes>
          <leafValues>
            2.2551262378692627e-01 -3.4850284457206726e-01</leafValues></_>
        <_>
          <internalNodes>
            0 -1 97 7.1028335951268673e-03</internalNodes>
          <leafValues>
            -3.1465014815330505e-01 2.5603872537612915e-01</leafValues></_>
        <_>
          <internalNodes>
            0 -1 174 1.0172573383897543e-03</internalNodes>
          <leafValues>
            -2.5684222579002380e-01 2.8503412008285522e-01</leafValues></_>
        <_>
          <internalNodes>
            0 -1 28 -1.6581635922193527e-02</internalNodes>
          <leafValues>
            -9.6984386444091797e-01 8.5785366594791412e-02</leafValues></_></weakClassifiers></_>
    <!-- stage 12 -->
    <_>
      <maxWeakCount>17</maxWeakCount>
      <stageThreshold>-8.9375835657119751e-01</stageThreshold>
      <weakClassifiers>
        <_>
          <internalNodes>
            0 -1 27 -4.3999198824167252e-03</internalNodes>
          <leafValues>
            5.7260274887084961e-01 -3.6212623119354248e-01</leafValues></_>
        <_>
          <internalNodes>
            0 -1 39 -3.4825312905013561e-03</internalNodes>
          <leafValues>
            3.5787025094032288e-01 -3.7912380695343018e-01</leafValues></_>
        <_>
          <internalNodes>
            0 -1 593 -2.4646238307468593e-04</internalNodes>
          <leafValues>
            -4.5800614356994629e-01 2.2598132491111755e-01</leafValues></_>
        <_>
          <internalNodes>
            0 -1 179 7.9285511747002602e-03</internalNodes>
          <leafValues>
            -5.7778859138488770e-01 1.8111933767795563e-01</leafValues></_>
        <_>
          <internalNodes>
            0 -1 342 9.8663312382996082e-04</internalNodes>
          <leafValues>
            1.2878368794918060e-01 -6.1137497425079346e-01</leafValues></_>
        <_>
          <internalNodes>
            0 -1 106 4.9510635435581207e-03</internalNodes>
          <leafValues>
            1.5189799666404724e-01 -5.3493034839630127e-01</leafValues></_>
        <_>
          <internalNodes>
            0 -1 76 2.6460850494913757e-04</internalNodes>
          <leafValues>
            2.1123133599758148e-01 -3.9217916131019592e-01</leafValues></_>
        <_>
          <internalNodes>
            0 -1 347 -2.3291729390621185e-02</internalNodes>
          <leafValues>
            -7.4777472019195557e-01 9.8272301256656647e-02</leafValues></_>
        <_>
          <internalNodes>
            0 -1 434 4.4704931788146496e-03</internalNodes>
          <leafValues>
            7.1978345513343811e-02 -8.8929903507232666e-01</leafValues></_>
        <_>
          <internalNodes>
            0 -1 486 3.9362539537250996e-03</internalNodes>
          <leafValues>
            -3.5282194614410400e-01 2.2397089004516602e-01</leafValues></_>
        <_>
          <internalNodes>
            0 -1 455 -1.7161553842015564e-04</internalNodes>
          <leafValues>
            3.4502255916595459e-01 -2.3731656372547150e-01</leafValues></_>
        <_>
          <internalNodes>
            0 -1 456 4.0450022788718343e-04</internalNodes>
          <leafValues>
            -2.2139152884483337e-01 3.8157090544700623e-01</leafValues></_>
        <_>
          <internalNodes>
            0 -1 604 -2.6550178881734610e-04</internalNodes>
          <leafValues>
            -3.9654359221458435e-01 1.7685057222843170e-01</leafValues></_>
        <_>
          <internalNodes>
            0 -1 588 1.3852862641215324e-02</internalNodes>
          <leafValues>
            1.1619713902473450e-01 -5.7731562852859497e-01</leafValues></_>
        <_>
          <internalNodes>
            0 -1 548 -8.5123587632551789e-04</internalNodes>
          <leafValues>
            2.7132543921470642e-01 -2.6208892464637756e-01</leafValues></_>
        <_>
          <internalNodes>
            0 -1 556 3.1785112805664539e-03</internalNodes>
          <leafValues>
            -1.5157793462276459e-01 5.2267545461654663e-01</leafValues></_>
        <_>
          <internalNodes>
            0 -1 542 -1.6422145999968052e-03</internalNodes>
          <leafValues>
            -6.4943552017211914e-01 1.1921672523021698e-01</leafValues></_></weakClassifiers></_>
    <!-- stage 13 -->
    <_>
      <maxWeakCount>24</maxWeakCount>
      <stageThreshold>-1.1246527433395386e+00</stageThreshold>
      <weakClassifiers>
        <_>
          <internalNodes>
            0 -1 353 1.1113888025283813e-01</internalNodes>
          <leafValues>
            -3.4337350726127625e-01 5.9841179847717285e-01</leafValues></_>
        <_>
          <internalNodes>
            0 -1 565 7.7866436913609505e-03</internalNodes>
          <leafValues>
            -2.3461341857910156e-01 4.8084038496017456e-01</leafValues></_>
        <_>
          <internalNodes>
            0 -1 280 -1.3227716553956270e-03</internalNodes>
          <leafValues>
            -6.6621011495590210e-01 1.3957107067108154e-01</leafValues></_>
        <_>
          <internalNodes>
            0 -1 145 6.3228853978216648e-03</internalNodes>
          <leafValues>
            -4.7580176591873169e-01 1.8659514188766479e-01</leafValues></_>
        <_>
          <internalNodes>
            0 -1 466 1.0732282680692151e-04</internalNodes>
          <leafValues>
            1.9257742166519165e-01 -4.2530792951583862e-01</leafValues></_>
        <_>
          <internalNodes>
            0 -1 483 -1.1799366213381290e-02</internalNodes>
          <leafValues>
            2.4306999146938324e-01 -3.0676183104515076e-01</leafValues></_>
        <_>
          <internalNodes>
            0 -1 115 4.6729370951652527e-03</internalNodes>
          <leafValues>
            1.0773012787103653e-01 -6.8617719411849976e-01</leafValues></_>
        <_>
          <internalNodes>
            0 -1 600 1.5353050548583269e-04</internalNodes>
          <leafValues>
            1.4957666397094727e-01 -4.7861987352371216e-01</leafValues></_>
        <_>
          <internalNodes>
            0 -1 436 -2.3993369191884995e-02</internalNodes>
          <leafValues>
            5.7243114709854126e-01 -1.5811721980571747e-01</leafValues></_>
        <_>
          <internalNodes>
            0 -1 8 -1.0632090270519257e-02</internalNodes>
          <leafValues>
            4.8120981454849243e-01 -1.0155995190143585e-01</leafValues></_>
        <_>
          <internalNodes>
            0 -1 430 -8.2336977357044816e-05</internalNodes>
          <leafValues>
            -5.4682296514511108e-01 1.0855162143707275e-01</leafValues></_>
        <_>
          <internalNodes>
            0 -1 61 -9.0575655922293663e-03</internalNodes>
          <leafValues>
            2.1075628697872162e-01 -3.2282927632331848e-01</leafValues></_>
        <_>
          <internalNodes>
            0 -1 407 2.3710286768618971e-05</internalNodes>
          <leafValues>
            -2.5010979175567627e-01 2.7603873610496521e-01</leafValues></_>
        <_>
          <internalNodes>
            0 -1 109 -1.8882375210523605e-02</internalNodes>
          <leafValues>
            -8.0155110359191895e-01 9.7376771271228790e-02</leafValues></_>
        <_>
          <internalNodes>
            0 -1 93 -3.1444542109966278e-03</internalNodes>
          <leafValues>
            2.6555892825126648e-01 -2.6441133022308350e-01</leafValues></_>
        <_>
          <internalNodes>
            0 -1 331 -6.7631117999553680e-03</internalNodes>
          <leafValues>
            5.6552189588546753e-01 -1.1084175109863281e-01</leafValues></_>
        <_>
          <internalNodes>
            0 -1 333 3.0198672320693731e-03</internalNodes>
          <leafValues>
            -1.5379086136817932e-01 4.7131013870239258e-01</leafValues></_>
        <_>
          <internalNodes>
            0 -1 4 1.9161030650138855e-02</internalNodes>
          <leafValues>
            9.8728410899639130e-02 -7.3048245906829834e-01</leafValues></_>
        <_>
          <internalNodes>
            0 -1 285 -2.0740725100040436e-02</internalNodes>
          <leafValues>
            3.9579838514328003e-01 -1.6573087871074677e-01</leafValues></_>
        <_>
          <internalNodes>
            0 -1 408 -3.3886134042404592e-04</internalNodes>
          <leafValues>
            3.2633933424949646e-01 -1.8734370172023773e-01</leafValues></_>
        <_>
          <internalNodes>
            0 -1 519 -3.0762932146899402e-04</internalNodes>
          <leafValues>
            -4.2049735784530640e-01 1.6077338159084320e-01</leafValues></_>
        <_>
          <internalNodes>
            0 -1 537 7.1274465881288052e-04</internalNodes>
          <leafValues>
            -1.4007915556430817e-01 4.8599958419799805e-01</leafValues></_>
        <_>
          <internalNodes>
            0 -1 521 1.5540220774710178e-03</internalNodes>
          <leafValues>
            1.0091187804937363e-01 -6.6553866863250732e-01</leafValues></_>
        <_>
          <internalNodes>
            0 -1 328 -4.2186100035905838e-03</internalNodes>
          <leafValues>
            3.4353765845298767e-01 -1.8969582021236420e-01</leafValues></_></weakClassifiers></_>
    <!-- stage 14 -->
    <_>
      <maxWeakCount>21</maxWeakCount>
      <stageThreshold>-8.8799703121185303e-01</stageThreshold>
      <weakClassifiers>
        <_>
          <internalNodes>
            0 -1 203 1.5030341222882271e-02</internalNodes>
          <leafValues>
            -5.6948226690292358e-01 5.0291264057159424e-01</leafValues></_>
        <_>
          <internalNodes>
            0 -1 250 2.7153700590133667e-02</internalNodes>
          <leafValues>
            -3.3828765153884888e-01 3.9646980166435242e-01</leafValues></_>
        <_>
          <internalNodes>
            0 -1 582 3.3390875614713877e-05</internalNodes>
          <leafValues>
            2.4328659474849701e-01 -5.8847558498382568e-01</leafValues></_>
        <_>
          <internalNodes>
            0 -1 562 3.0739889480173588e-03</internalNodes>
          <leafValues>
            -4.0806007385253906e-01 2.4933090806007385e-01</leafValues></_>
        <_>
          <internalNodes>
            0 -1 343 8.0366233305539936e-05</internalNodes>
          <leafValues>
            1.3813498616218567e-01 -6.0911661386489868e-01</leafValues></_>
        <_>
          <internalNodes>
            0 -1 2 1.8506976775825024e-03</internalNodes>
          <leafValues>
            1.2022518366575241e-01 -6.1591380834579468e-01</leafValues></_>
        <_>
          <internalNodes>
            0 -1 276 -3.3253058791160583e-03</internalNodes>
          <leafValues>
            -7.8480041027069092e-01 7.9338662326335907e-02</leafValues></_>
        <_>
          <internalNodes>
            0 -1 92 -1.9247987074777484e-04</internalNodes>
          <leafValues>
            -5.8644992113113403e-01 1.0734064131975174e-01</leafValues></_>
        <_>
          <internalNodes>
            0 -1 139 5.0117425620555878e-02</internalNodes>
          <leafValues>
            -2.6258233189582825e-01 2.8456151485443115e-01</leafValues></_>
        <_>
          <internalNodes>
            0 -1 88 -2.0330950617790222e-02</internalNodes>
          <leafValues>
            5.5226051807403564e-01 -1.7593666911125183e-01</leafValues></_>
        <_>
          <internalNodes>
            0 -1 40 -2.8203988913446665e-03</internalNodes>
          <leafValues>
            3.4758722782135010e-01 -2.0194697380065918e-01</leafValues></_>
        <_>
          <internalNodes>
            0 -1 343 -1.2107817747164518e-04</internalNodes>
          <leafValues>
            -6.3768911361694336e-01 9.6392445266246796e-02</leafValues></_>
        <_>
          <internalNodes>
            0 -1 241 8.2498751580715179e-02</internalNodes>
          <leafValues>
            -9.2914305627346039e-02 7.8428626060485840e-01</leafValues></_>
        <_>
          <internalNodes>
            0 -1 34 -7.1613700129091740e-05</internalNodes>
          <leafValues>
            -4.3120205402374268e-01 1.6414669156074524e-01</leafValues></_>
        <_>
          <internalNodes>
            0 -1 50 2.2194027900695801e-02</internalNodes>
          <leafValues>
            -1.9765187799930573e-01 3.7914440035820007e-01</leafValues></_>
        <_>
          <internalNodes>
            0 -1 52 8.8280625641345978e-03</internalNodes>
          <leafValues>
            1.2862502038478851e-01 -5.2262759208679199e-01</leafValues></_>
        <_>
          <internalNodes>
            0 -1 500 2.6670578867197037e-02</internalNodes>
          <leafValues>
            -1.9357205927371979e-01 3.3171153068542480e-01</leafValues></_>
        <_>
          <internalNodes>
            0 -1 299 1.0303664566890802e-05</internalNodes>
          <leafValues>
            -4.1606989502906799e-01 1.6707864403724670e-01</leafValues></_>
        <_>
          <internalNodes>
            0 -1 351 3.4449594095349312e-03</internalNodes>
          <leafValues>
            -1.6664619743824005e-01 3.7585702538490295e-01</leafValues></_>
        <_>
          <internalNodes>
            0 -1 287 -6.4620375633239746e-03</internalNodes>
          <leafValues>
            4.6400427818298340e-01 -1.2316609919071198e-01</leafValues></_>
        <_>
          <internalNodes>
            0 -1 196 1.3623826205730438e-02</internalNodes>
          <leafValues>
            -1.4428135752677917e-01 4.4488045573234558e-01</leafValues></_></weakClassifiers></_>
    <!-- stage 15 -->
    <_>
      <maxWeakCount>21</maxWeakCount>
      <stageThreshold>-9.6098780632019043e-01</stageThreshold>
      <weakClassifiers>
        <_>
          <internalNodes>
            0 -1 320 6.2075592577457428e-02</internalNodes>
          <leafValues>
            -1.3691128790378571e-01 6.2879788875579834e-01</leafValues></_>
        <_>
          <internalNodes>
            0 -1 185 5.6387456133961678e-03</internalNodes>
          <leafValues>
            -5.8878368139266968e-01 2.2784376144409180e-01</leafValues></_>
        <_>
          <internalNodes>
            0 -1 464 1.0348514479119331e-04</internalNodes>
          <leafValues>
            2.3838575184345245e-01 -4.3423211574554443e-01</leafValues></_>
        <_>
          <internalNodes>
            0 -1 540 3.4050516784191132e-02</internalNodes>
          <leafValues>
            -1.4108720421791077e-01 7.7344369888305664e-01</leafValues></_>
        <_>
          <internalNodes>
            0 -1 504 -1.1670855747070163e-04</internalNodes>
          <leafValues>
            -4.2747321724891663e-01 1.9014698266983032e-01</leafValues></_>
        <_>
          <internalNodes>
            0 -1 311 -6.8157305940985680e-03</internalNodes>
          <leafValues>
            1.9274991750717163e-01 -4.5795893669128418e-01</leafValues></_>
        <_>
          <internalNodes>
            0 -1 161 1.9630240276455879e-02</internalNodes>
          <leafValues>
            -1.4135053753852844e-01 4.9494686722755432e-01</leafValues></_>
        <_>
          <internalNodes>
            0 -1 238 4.2282082140445709e-03</internalNodes>
          <leafValues>
            -1.8704693019390106e-01 4.0165880322456360e-01</leafValues></_>
        <_>
          <internalNodes>
            0 -1 545 -1.2224919628351927e-03</internalNodes>
          <leafValues>
            -8.5007745027542114e-01 8.7181247770786285e-02</leafValues></_>
        <_>
          <internalNodes>
            0 -1 532 4.9248064897255972e-05</internalNodes>
          <leafValues>
            1.5240700542926788e-01 -4.7115090489387512e-01</leafValues></_>
        <_>
          <internalNodes>
            0 -1 60 -7.1787070482969284e-03</internalNodes>
          <leafValues>
            3.5054144263267517e-01 -2.2629998624324799e-01</leafValues></_>
        <_>
          <internalNodes>
            0 -1 587 1.9593421369791031e-02</internalNodes>
          <leafValues>
            1.0383526235818863e-01 -8.3698230981826782e-01</leafValues></_>
        <_>
          <internalNodes>
            0 -1 154 -1.2763748236466199e-04</internalNodes>
          <leafValues>
            -5.8591437339782715e-01 7.8652255237102509e-02</leafValues></_>
        <_>
          <internalNodes>
            0 -1 569 5.2387225441634655e-03</internalNodes>
          <leafValues>
            -1.8913273513317108e-01 3.1250190734863281e-01</leafValues></_>
        <_>
          <internalNodes>
            0 -1 157 -3.2692638342268765e-04</internalNodes>
          <leafValues>
            -5.4158425331115723e-01 1.0471324622631073e-01</leafValues></_>
        <_>
          <internalNodes>
            0 -1 526 -2.5283303111791611e-02</internalNodes>
          <leafValues>
            4.1053164005279541e-01 -1.5316565334796906e-01</leafValues></_>
        <_>
          <internalNodes>
            0 -1 602 3.5770595422945917e-04</internalNodes>
          <leafValues>
            1.0566437244415283e-01 -6.4771568775177002e-01</leafValues></_>
        <_>
          <internalNodes>
            0 -1 206 -1.4047615230083466e-01</internalNodes>
          <leafValues>
            6.0143798589706421e-01 -1.3459369540214539e-01</leafValues></_>
        <_>
          <internalNodes>
            0 -1 391 3.0979925213614479e-05</internalNodes>
          <leafValues>
            -2.1831661462783813e-01 3.1240189075469971e-01</leafValues></_>
        <_>
          <internalNodes>
            0 -1 370 -1.1027503933291882e-04</internalNodes>
          <leafValues>
            3.3233457803726196e-01 -1.6741910576820374e-01</leafValues></_>
        <_>
          <internalNodes>
            0 -1 20 -1.8485896289348602e-02</internalNodes>
          <leafValues>
            3.2478407025337219e-01 -1.8017612397670746e-01</leafValues></_></weakClassifiers></_>
    <!-- stage 16 -->
    <_>
      <maxWeakCount>26</maxWeakCount>
      <stageThreshold>-8.9153248071670532e-01</stageThreshold>
      <weakClassifiers>
        <_>
          <internalNodes>
            0 -1 317 1.5914343297481537e-01</internalNodes>
          <leafValues>
            -1.5649867057800293e-01 5.6485354900360107e-01</leafValues></_>
        <_>
          <internalNodes>
            0 -1 147 5.6069260463118553e-03</internalNodes>
          <leafValues>
            -3.9116257429122925e-01 2.9770562052726746e-01</leafValues></_>
        <_>
          <internalNodes>
            0 -1 363 6.8392109824344516e-05</internalNodes>
          <leafValues>
            1.8655484914779663e-01 -4.6212247014045715e-01</leafValues></_>
        <_>
          <internalNodes>
            0 -1 574 5.3190466132946312e-05</internalNodes>
          <leafValues>
            -4.9856224656105042e-01 1.8327851593494415e-01</leafValues></_>
        <_>
          <internalNodes>
            0 -1 6 1.5208221040666103e-02</internalNodes>
          <leafValues>
            1.1624804884195328e-01 -6.2528693675994873e-01</leafValues></_>
        <_>
          <internalNodes>
            0 -1 153 1.7488641897216439e-03</internalNodes>
          <leafValues>
            1.0900895297527313e-01 -5.9717077016830444e-01</leafValues></_>
        <_>
          <internalNodes>
            0 -1 420 -1.8368184566497803e-01</internalNodes>
          <leafValues>
            7.6039695739746094e-01 -9.7254909574985504e-02</leafValues></_>
        <_>
          <internalNodes>
            0 -1 267 9.3608632683753967e-02</internalNodes>
          <leafValues>
            -2.2731283307075500e-01 3.7124517560005188e-01</leafValues></_>
        <_>
          <internalNodes>
            0 -1 481 -2.2932370193302631e-03</internalNodes>
          <leafValues>
            1.8082964420318604e-01 -3.9086699485778809e-01</leafValues></_>
        <_>
          <internalNodes>
            0 -1 433 2.9854780063033104e-02</internalNodes>
          <leafValues>
            -1.0308969765901566e-01 6.3066685199737549e-01</leafValues></_>
        <_>
          <internalNodes>
            0 -1 178 4.5608878135681152e-03</internalNodes>
          <leafValues>
            -4.4059428572654724e-01 1.4906312525272369e-01</leafValues></_>
        <_>
          <internalNodes>
            0 -1 166 3.3028647303581238e-02</internalNodes>
          <leafValues>
            -1.8712469935417175e-01 3.8155406713485718e-01</leafValues></_>
        <_>
          <internalNodes>
            0 -1 47 -1.7576433718204498e-02</internalNodes>
          <leafValues>
            4.7596254944801331e-01 -1.3111837208271027e-01</leafValues></_>
        <_>
          <internalNodes>
            0 -1 158 1.3763525523245335e-02</internalNodes>
          <leafValues>
            7.0297174155712128e-02 -9.2645674943923950e-01</leafValues></_>
        <_>
          <internalNodes>
            0 -1 383 -3.0463361181318760e-03</internalNodes>
          <leafValues>
            -6.7723077535629272e-01 5.9835162013769150e-02</leafValues></_>
        <_>
          <internalNodes>
            0 -1 297 1.8011266365647316e-04</internalNodes>
          <leafValues>
            -1.7384298145771027e-01 3.0003502964973450e-01</leafValues></_>
        <_>
          <internalNodes>
            0 -1 495 4.0605086833238602e-02</internalNodes>
          <leafValues>
            -1.1599212139844894e-01 4.9985948204994202e-01</leafValues></_>
        <_>
          <internalNodes>
            0 -1 125 -2.7000609785318375e-02</internalNodes>
          <leafValues>
            5.1479053497314453e-01 -9.2417396605014801e-02</leafValues></_>
        <_>
          <internalNodes>
            0 -1 148 -2.4866778403520584e-04</internalNodes>
          <leafValues>
            -3.7321856617927551e-01 1.4950865507125854e-01</leafValues></_>
        <_>
          <internalNodes>
            0 -1 471 2.4486734764650464e-04</internalNodes>
          <leafValues>
            -2.1827344596385956e-01 2.4009776115417480e-01</leafValues></_>
        <_>
          <internalNodes>
            0 -1 118 -5.4419487714767456e-02</internalNodes>
          <leafValues>
            4.2655012011528015e-01 -1.0211215913295746e-01</leafValues></_>
        <_>
          <internalNodes>
            0 -1 409 -4.2488235980272293e-02</internalNodes>
          <leafValues>
            3.9649498462677002e-01 -1.3898791372776031e-01</leafValues></_>
        <_>
          <internalNodes>
            0 -1 513 5.3497059270739555e-03</internalNodes>
          <leafValues>
            -1.6982680559158325e-01 3.4239900112152100e-01</leafValues></_>
        <_>
          <internalNodes>
            0 -1 62 -1.1622299253940582e-01</internalNodes>
          <leafValues>
            3.3666902780532837e-01 -1.7158813774585724e-01</leafValues></_>
        <_>
          <internalNodes>
            0 -1 163 -2.3733818903565407e-02</internalNodes>
          <leafValues>
            4.3722590804100037e-01 -1.6928187012672424e-01</leafValues></_>
        <_>
          <internalNodes>
            0 -1 271 5.2944174967706203e-04</internalNodes>
          <leafValues>
            -1.9428747892379761e-01 3.1091210246086121e-01</leafValues></_></weakClassifiers></_>
    <!-- stage 17 -->
    <_>
      <maxWeakCount>24</maxWeakCount>
      <stageThreshold>-7.6372301578521729e-01</stageThreshold>
      <weakClassifiers>
        <_>
          <internalNodes>
            0 -1 89 4.8740542843006551e-04</internalNodes>
          <leafValues>
            -4.8924732208251953e-01 4.9099755287170410e-01</leafValues></_>
        <_>
          <internalNodes>
            0 -1 230 7.9680426279082894e-04</internalNodes>
          <leafValues>
            -4.6970507502555847e-01 2.8142708539962769e-01</leafValues></_>
        <_>
          <internalNodes>
            0 -1 404 3.1711630523204803e-02</internalNodes>
          <leafValues>
            -3.9806210994720459e-01 2.5045797228813171e-01</leafValues></_>
        <_>
          <internalNodes>
            0 -1 190 -4.3190950527787209e-03</internalNodes>
          <leafValues>
            5.5404603481292725e-01 -1.8269467353820801e-01</leafValues></_>
        <_>
          <internalNodes>
            0 -1 80 -1.0589048266410828e-02</internalNodes>
          <leafValues>
            6.5776211023330688e-01 -1.0079891234636307e-01</leafValues></_>
        <_>
          <internalNodes>
            0 -1 87 7.1637652581557631e-05</internalNodes>
          <leafValues>
            1.8895381689071655e-01 -4.2063716053962708e-01</leafValues></_>
        <_>
          <internalNodes>
            0 -1 107 1.0526111349463463e-02</internalNodes>
          <leafValues>
            1.0876091569662094e-01 -5.7731902599334717e-01</leafValues></_>
        <_>
          <internalNodes>
            0 -1 302 1.1308088687655982e-05</internalNodes>
          <leafValues>
            -4.4432106614112854e-01 1.7863556742668152e-01</leafValues></_>
        <_>
          <internalNodes>
            0 -1 95 1.5053352108225226e-03</internalNodes>
          <leafValues>
            -2.4320745468139648e-01 2.5392952561378479e-01</leafValues></_>
        <_>
          <internalNodes>
            0 -1 221 -3.6023036955157295e-05</internalNodes>
          <leafValues>
            -4.8250538110733032e-01 1.2091626226902008e-01</leafValues></_>
        <_>
          <internalNodes>
            0 -1 102 4.9450824735686183e-04</internalNodes>
          <leafValues>
            7.7637426555156708e-02 -7.6336550712585449e-01</leafValues></_>
        <_>
          <internalNodes>
            0 -1 324 2.1278858184814453e-02</internalNodes>
          <leafValues>
            -2.1677473187446594e-01 2.4325653910636902e-01</leafValues></_>
        <_>
          <internalNodes>
            0 -1 129 4.9952547997236252e-03</internalNodes>
          <leafValues>
            -9.3763187527656555e-02 5.3008085489273071e-01</leafValues></_>
        <_>
          <internalNodes>
            0 -1 51 -2.7759827673435211e-02</internalNodes>
          <leafValues>
            2.0634548366069794e-01 -2.9648390412330627e-01</leafValues></_>
        <_>
          <internalNodes>
            0 -1 156 5.3449846745934337e-05</internalNodes>
          <leafValues>
            -1.9393105804920197e-01 2.7767524123191833e-01</leafValues></_>
        <_>
          <internalNodes>
            0 -1 275 -4.9780363042373210e-05</internalNodes>
          <leafValues>
            -4.4993600249290466e-01 1.2000073492527008e-01</leafValues></_>
        <_>
          <internalNodes>
            0 -1 28 -1.6027797013521194e-02</internalNodes>
          <leafValues>
            -9.3581169843673706e-01 4.2873889207839966e-02</leafValues></_>
        <_>
          <internalNodes>
            0 -1 579 7.6361733954399824e-04</internalNodes>
          <leafValues>
            7.9031415283679962e-02 -5.8804094791412354e-01</leafValues></_>
        <_>
          <internalNodes>
            0 -1 523 -1.1185358744114637e-05</internalNodes>
          <leafValues>
            2.6347017288208008e-01 -1.9389306008815765e-01</leafValues></_>
        <_>
          <internalNodes>
            0 -1 214 1.0778110008686781e-03</internalNodes>
          <leafValues>
            -1.9774635136127472e-01 2.7464342117309570e-01</leafValues></_>
        <_>
          <internalNodes>
            0 -1 14 -2.2546318359673023e-03</internalNodes>
          <leafValues>
            -7.8630405664443970e-01 6.5113916993141174e-02</leafValues></_>
        <_>
          <internalNodes>
            0 -1 376 7.0478225825354457e-04</internalNodes>
          <leafValues>
            -2.0605926215648651e-01 2.4369467794895172e-01</leafValues></_>
        <_>
          <internalNodes>
            0 -1 66 4.4617411913350224e-04</internalNodes>
          <leafValues>
            8.3287551999092102e-02 -6.6367161273956299e-01</leafValues></_>
        <_>
          <internalNodes>
            0 -1 182 4.9037029966711998e-03</internalNodes>
          <leafValues>
            -1.7800366878509521e-01 2.7545580267906189e-01</leafValues></_></weakClassifiers></_>
    <!-- stage 18 -->
    <_>
      <maxWeakCount>28</maxWeakCount>
      <stageThreshold>-8.6222308874130249e-01</stageThreshold>
      <weakClassifiers>
        <_>
          <internalNodes>
            0 -1 603 7.8921540989540517e-05</internalNodes>
          <leafValues>
            5.0209206342697144e-01 -2.5825244188308716e-01</leafValues></_>
        <_>
          <internalNodes>
            0 -1 117 -1.5454058535397053e-02</internalNodes>
          <leafValues>
            6.9948625564575195e-01 -1.2017367035150528e-01</leafValues></_>
        <_>
          <internalNodes>
            0 -1 362 2.8997342451475561e-04</internalNodes>
          <leafValues>
            2.0477861166000366e-01 -4.1926503181457520e-01</leafValues></_>
        <_>
          <internalNodes>
            0 -1 12 -2.2117160260677338e-03</internalNodes>
          <leafValues>
            1.9732190668582916e-01 -3.8069713115692139e-01</leafValues></_>
        <_>
          <internalNodes>
            0 -1 589 1.3370265252888203e-02</internalNodes>
          <leafValues>
            1.0410661250352859e-01 -6.5942150354385376e-01</leafValues></_>
        <_>
          <internalNodes>
            0 -1 555 9.8929852247238159e-03</internalNodes>
          <leafValues>
            -1.9977974891662598e-01 3.5985067486763000e-01</leafValues></_>
        <_>
          <internalNodes>
            0 -1 158 2.4089575745165348e-03</internalNodes>
          <leafValues>
            1.1475180089473724e-01 -5.5157381296157837e-01</leafValues></_>
        <_>
          <internalNodes>
            0 -1 73 -5.5341733968816698e-05</internalNodes>
          <leafValues>
            -4.3664348125457764e-01 1.2867280840873718e-01</leafValues></_>
        <_>
          <internalNodes>
            0 -1 469 3.5821604542434216e-03</internalNodes>
          <leafValues>
            6.5581254661083221e-02 -7.5525128841400146e-01</leafValues></_>
        <_>
          <internalNodes>
            0 -1 463 -1.4855582267045975e-02</internalNodes>
          <leafValues>
            6.4604693651199341e-01 -9.0344414114952087e-02</leafValues></_>
        <_>
          <internalNodes>
            0 -1 23 -2.5975566357374191e-02</internalNodes>
          <leafValues>
            1.5614491701126099e-01 -3.5559275746345520e-01</leafValues></_>
        <_>
          <internalNodes>
            0 -1 553 -9.3421083875000477e-04</internalNodes>
          <leafValues>
            2.4805709719657898e-01 -2.6875725388526917e-01</leafValues></_>
        <_>
          <internalNodes>
            0 -1 277 1.0507832281291485e-02</internalNodes>
          <leafValues>
            6.8549640476703644e-02 -7.1539783477783203e-01</leafValues></_>
        <_>
          <internalNodes>
            0 -1 256 2.8236152604222298e-02</internalNodes>
          <leafValues>
            -1.7288136482238770e-01 3.0971306562423706e-01</leafValues></_>
        <_>
          <internalNodes>
            0 -1 173 1.3281138241291046e-01</internalNodes>
          <leafValues>
            -1.7105421423912048e-01 3.1481727957725525e-01</leafValues></_>
        <_>
          <internalNodes>
            0 -1 235 6.6362845245748758e-05</internalNodes>
          <leafValues>
            2.0175378024578094e-01 -3.4627303481101990e-01</leafValues></_>
        <_>
          <internalNodes>
            0 -1 147 6.7740799859166145e-03</internalNodes>
          <leafValues>
            -2.6509922742843628e-01 1.9300962984561920e-01</leafValues></_>
        <_>
          <internalNodes>
            0 -1 325 2.0977888198103756e-05</internalNodes>
          <leafValues>
            -1.8857905268669128e-01 2.5765645503997803e-01</leafValues></_>
        <_>
          <internalNodes>
            0 -1 609 5.3137344366405159e-05</internalNodes>
          <leafValues>
            1.3317732512950897e-01 -3.8992968201637268e-01</leafValues></_>
        <_>
          <internalNodes>
            0 -1 332 6.6554930526763201e-04</internalNodes>
          <leafValues>
            -2.0265771448612213e-01 2.6431453227996826e-01</leafValues></_>
        <_>
          <internalNodes>
            0 -1 496 -8.4875792264938354e-02</internalNodes>
          <leafValues>
            4.2907574772834778e-01 -1.0922561585903168e-01</leafValues></_>
        <_>
          <internalNodes>
            0 -1 416 -3.6620446480810642e-03</internalNodes>
          <leafValues>
            -6.3450896739959717e-01 8.2523964345455170e-02</leafValues></_>
        <_>
          <internalNodes>
            0 -1 597 2.7583339251577854e-03</internalNodes>
          <leafValues>
            7.1428328752517700e-02 -6.2075972557067871e-01</leafValues></_>
        <_>
          <internalNodes>
            0 -1 293 1.8528786313254386e-04</internalNodes>
          <leafValues>
            -1.4970715343952179e-01 3.2379019260406494e-01</leafValues></_>
        <_>
          <internalNodes>
            0 -1 269 -2.7269680867902935e-04</internalNodes>
          <leafValues>
            2.0961302518844604e-01 -2.1691682934761047e-01</leafValues></_>
        <_>
          <internalNodes>
            0 -1 225 1.3121597468852997e-02</internalNodes>
          <leafValues>
            -1.0174484550952911e-01 4.1958764195442200e-01</leafValues></_>
        <_>
          <internalNodes>
            0 -1 171 6.4040333032608032e-02</internalNodes>
          <leafValues>
            -8.8558189570903778e-02 5.0137859582901001e-01</leafValues></_>
        <_>
          <internalNodes>
            0 -1 172 2.6796996593475342e-02</internalNodes>
          <leafValues>
            -6.9659598171710968e-02 5.8496725559234619e-01</leafValues></_></weakClassifiers></_>
    <!-- stage 19 -->
    <_>
      <maxWeakCount>26</maxWeakCount>
      <stageThreshold>-7.8057086467742920e-01</stageThreshold>
      <weakClassifiers>
        <_>
          <internalNodes>
            0 -1 279 -4.7458922490477562e-03</internalNodes>
          <leafValues>
            5.7509160041809082e-01 -1.4575411379337311e-01</leafValues></_>
        <_>
          <internalNodes>
            0 -1 539 4.2444035410881042e-02</internalNodes>
          <leafValues>
            -9.8145142197608948e-02 7.3178249597549438e-01</leafValues></_>
        <_>
          <internalNodes>
            0 -1 0 3.7442201573867351e-05</internalNodes>
          <leafValues>
            1.5113049745559692e-01 -5.9850716590881348e-01</leafValues></_>
        <_>
          <internalNodes>
            0 -1 10 -1.1181815527379513e-02</internalNodes>
          <leafValues>
            3.4438401460647583e-01 -2.1659740805625916e-01</leafValues></_>
        <_>
          <internalNodes>
            0 -1 0 -3.8586997106904164e-05</internalNodes>
          <leafValues>
            -4.8154303431510925e-01 9.2463731765747070e-02</leafValues></_>
        <_>
          <internalNodes>
            0 -1 69 1.2918600987177342e-04</internalNodes>
          <leafValues>
            1.9604310393333435e-01 -3.1101971864700317e-01</leafValues></_>
        <_>
          <internalNodes>
            0 -1 185 5.2187321707606316e-03</internalNodes>
          <leafValues>
            -4.7299915552139282e-01 1.1503368616104126e-01</leafValues></_>
        <_>
          <internalNodes>
            0 -1 63 -8.9605734683573246e-04</internalNodes>
          <leafValues>
            -3.4664815664291382e-01 1.7408508062362671e-01</leafValues></_>
        <_>
          <internalNodes>
            0 -1 390 -1.3799784937873483e-04</internalNodes>
          <leafValues>
            3.4897771477699280e-01 -1.6582322120666504e-01</leafValues></_>
        <_>
          <internalNodes>
            0 -1 329 5.9153381735086441e-03</internalNodes>
          <leafValues>
            -1.8948101997375488e-01 3.1935912370681763e-01</leafValues></_>
        <_>
          <internalNodes>
            0 -1 591 1.3649287633597851e-02</internalNodes>
          <leafValues>
            8.7352581322193146e-02 -5.9984117746353149e-01</leafValues></_>
        <_>
          <internalNodes>
            0 -1 107 1.6730803996324539e-02</internalNodes>
          <leafValues>
            7.2603657841682434e-02 -6.4010602235794067e-01</leafValues></_>
        <_>
          <internalNodes>
            0 -1 19 -2.7565206401050091e-03</internalNodes>
          <leafValues>
            -6.4672040939331055e-01 6.4399406313896179e-02</leafValues></_>
        <_>
          <internalNodes>
            0 -1 191 2.1754577755928040e-03</internalNodes>
          <leafValues>
            -2.1173311769962311e-01 2.4530869722366333e-01</leafValues></_>
        <_>
          <internalNodes>
            0 -1 374 -8.3355487731751055e-05</internalNodes>
          <leafValues>
            2.1623486280441284e-01 -2.1893642842769623e-01</leafValues></_>
        <_>
          <internalNodes>
            0 -1 213 6.7789937020279467e-05</internalNodes>
          <leafValues>
            1.9082291424274445e-01 -2.8605276346206665e-01</leafValues></_>
        <_>
          <internalNodes>
            0 -1 136 2.2878807038068771e-02</internalNodes>
          <leafValues>
            -1.8081192672252655e-01 3.1703969836235046e-01</leafValues></_>
        <_>
          <internalNodes>
            0 -1 170 -6.8669602274894714e-02</internalNodes>
          <leafValues>
            2.8192999958992004e-01 -1.7965157330036163e-01</leafValues></_>
        <_>
          <internalNodes>
            0 -1 549 -2.5890115648508072e-03</internalNodes>
          <leafValues>
            2.6952582597732544e-01 -2.3103837668895721e-01</leafValues></_>
        <_>
          <internalNodes>
            0 -1 330 1.4697043225169182e-03</internalNodes>
          <leafValues>
            -2.0220652222633362e-01 2.3881879448890686e-01</leafValues></_>
        <_>
          <internalNodes>
            0 -1 584 2.4776849895715714e-03</internalNodes>
          <leafValues>
            7.9756848514080048e-02 -6.3480007648468018e-01</leafValues></_>
        <_>
          <internalNodes>
            0 -1 511 1.8985154107213020e-02</internalNodes>
          <leafValues>
            -2.0789568126201630e-01 2.4748890101909637e-01</leafValues></_>
        <_>
          <internalNodes>
            0 -1 305 1.1024458217434585e-05</internalNodes>
          <leafValues>
            -2.7366691827774048e-01 1.9444423913955688e-01</leafValues></_>
        <_>
          <internalNodes>
            0 -1 319 -5.6755361147224903e-03</internalNodes>
          <leafValues>
            4.1860765218734741e-01 -1.1894604563713074e-01</leafValues></_>
        <_>
          <internalNodes>
            0 -1 249 1.6796645522117615e-01</internalNodes>
          <leafValues>
            6.1463676393032074e-02 -9.1011869907379150e-01</leafValues></_>
        <_>
          <internalNodes>
            0 -1 13 2.7223052456974983e-03</internalNodes>
          <leafValues>
            3.7179447710514069e-02 -9.1821020841598511e-01</leafValues></_></weakClassifiers></_>
    <!-- stage 20 -->
    <_>
      <maxWeakCount>32</maxWeakCount>
      <stageThreshold>-8.9916694164276123e-01</stageThreshold>
      <weakClassifiers>
        <_>
          <internalNodes>
            0 -1 226 1.6459420323371887e-01</internalNodes>
          <leafValues>
            -3.8918918371200562e-01 4.7204667329788208e-01</leafValues></_>
        <_>
          <internalNodes>
            0 -1 575 9.4416411593556404e-03</internalNodes>
          <leafValues>
            -9.2131488025188446e-02 8.1376403570175171e-01</leafValues></_>
        <_>
          <internalNodes>
            0 -1 527 1.7911015078425407e-02</internalNodes>
          <leafValues>
            -2.2544428706169128e-01 3.4366005659103394e-01</leafValues></_>
        <_>
          <internalNodes>
            0 -1 480 -1.2558119487948716e-04</internalNodes>
          <leafValues>
            -3.4108740091323853e-01 1.9581058621406555e-01</leafValues></_>
        <_>
          <internalNodes>
            0 -1 450 -1.1880303174257278e-01</internalNodes>
          <leafValues>
            8.6502724885940552e-01 -7.1726068854331970e-02</leafValues></_>
        <_>
          <internalNodes>
            0 -1 608 1.1130195343866944e-04</internalNodes>
          <leafValues>
            1.3578197360038757e-01 -3.7455722689628601e-01</leafValues></_>
        <_>
          <internalNodes>
            0 -1 189 -2.1638087928295135e-03</internalNodes>
          <leafValues>
            2.9985636472702026e-01 -1.8206548690795898e-01</leafValues></_>
        <_>
          <internalNodes>
            0 -1 424 -6.9752612034790218e-05</internalNodes>
          <leafValues>
            -5.4292738437652588e-01 1.0508580505847931e-01</leafValues></_>
        <_>
          <internalNodes>
            0 -1 36 -1.1284071952104568e-03</internalNodes>
          <leafValues>
            2.4435366690158844e-01 -2.2142356634140015e-01</leafValues></_>
        <_>
          <internalNodes>
            0 -1 59 -6.9107590243220329e-03</internalNodes>
          <leafValues>
            4.8222351074218750e-01 -1.2708483636379242e-01</leafValues></_>
        <_>
          <internalNodes>
            0 -1 585 1.1685913428664207e-02</internalNodes>
          <leafValues>
            9.9916063249111176e-02 -6.9688409566879272e-01</leafValues></_>
        <_>
          <internalNodes>
            0 -1 210 -3.0999048613011837e-03</internalNodes>
          <leafValues>
            -6.8032032251358032e-01 6.5796740353107452e-02</leafValues></_>
        <_>
          <internalNodes>
            0 -1 399 1.8528282642364502e-02</internalNodes>
          <leafValues>
            -9.1446295380592346e-02 6.3018423318862915e-01</leafValues></_>
        <_>
          <internalNodes>
            0 -1 465 -1.6731107607483864e-03</internalNodes>
          <leafValues>
            -6.5279692411422729e-01 7.8958220779895782e-02</leafValues></_>
        <_>
          <internalNodes>
            0 -1 303 8.1457913620397449e-04</internalNodes>
          <leafValues>
            -1.0920882225036621e-01 4.4177198410034180e-01</leafValues></_>
        <_>
          <internalNodes>
            0 -1 268 1.6558004426769912e-04</internalNodes>
          <leafValues>
            -1.6360685229301453e-01 2.8154262900352478e-01</leafValues></_>
        <_>
          <internalNodes>
            0 -1 70 1.6007032536435872e-04</internalNodes>
          <leafValues>
            2.0463551580905914e-01 -2.4324157834053040e-01</leafValues></_>
        <_>
          <internalNodes>
            0 -1 106 3.5899342037737370e-03</internalNodes>
          <leafValues>
            1.0730218142271042e-01 -4.6029210090637207e-01</leafValues></_>
        <_>
          <internalNodes>
            0 -1 323 -6.1352066695690155e-03</internalNodes>
          <leafValues>
            -4.3709307909011841e-01 9.4027593731880188e-02</leafValues></_>
        <_>
          <internalNodes>
            0 -1 57 -3.3368896692991257e-02</internalNodes>
          <leafValues>
            6.2746340036392212e-01 -7.2068929672241211e-02</leafValues></_>
        <_>
          <internalNodes>
            0 -1 28 8.3746239542961121e-03</internalNodes>
          <leafValues>
            6.8112000823020935e-02 -8.1227254867553711e-01</leafValues></_>
        <_>
          <internalNodes>
            0 -1 53 -8.6609943537041545e-04</internalNodes>
          <leafValues>
            1.2285628914833069e-01 -3.2839378714561462e-01</leafValues></_>
        <_>
          <internalNodes>
            0 -1 307 -1.3362755998969078e-04</internalNodes>
          <leafValues>
            -5.6167209148406982e-01 6.7180633544921875e-02</leafValues></_>
        <_>
          <internalNodes>
            0 -1 384 1.1706486475304700e-05</internalNodes>
          <leafValues>
            -1.9813907146453857e-01 2.1706321835517883e-01</leafValues></_>
        <_>
          <internalNodes>
            0 -1 160 3.3411271870136261e-03</internalNodes>
          <leafValues>
            6.0855697840452194e-02 -6.8724370002746582e-01</leafValues></_>
        <_>
          <internalNodes>
            0 -1 192 -5.3616990044247359e-05</internalNodes>
          <leafValues>
            -3.1139558553695679e-01 1.2929968535900116e-01</leafValues></_>
        <_>
          <internalNodes>
            0 -1 346 -9.4288690015673637e-03</internalNodes>
          <leafValues>
            3.2413548231124878e-01 -1.5309628844261169e-01</leafValues></_>
        <_>
          <internalNodes>
            0 -1 563 6.5796473063528538e-04</internalNodes>
          <leafValues>
            5.6242886930704117e-02 -7.4219810962677002e-01</leafValues></_>
        <_>
          <internalNodes>
            0 -1 265 -2.1148743107914925e-03</internalNodes>
          <leafValues>
            1.9732877612113953e-01 -2.2106777131557465e-01</leafValues></_>
        <_>
          <internalNodes>
            0 -1 247 -6.5553218126296997e-02</internalNodes>
          <leafValues>
            5.1673036813735962e-01 -9.3998193740844727e-02</leafValues></_>
        <_>
          <internalNodes>
            0 -1 497 9.3327332288026810e-03</internalNodes>
          <leafValues>
            -1.2033278495073318e-01 3.3533713221549988e-01</leafValues></_>
        <_>
          <internalNodes>
            0 -1 133 -1.0317877866327763e-02</internalNodes>
          <leafValues>
            2.8611493110656738e-01 -1.5023772418498993e-01</leafValues></_></weakClassifiers></_>
    <!-- stage 21 -->
    <_>
      <maxWeakCount>33</maxWeakCount>
      <stageThreshold>-8.3945101499557495e-01</stageThreshold>
      <weakClassifiers>
        <_>
          <internalNodes>
            0 -1 41 -4.2744837701320648e-03</internalNodes>
          <leafValues>
            5.3883492946624756e-01 -7.8305520117282867e-02</leafValues></_>
        <_>
          <internalNodes>
            0 -1 578 1.1388482525944710e-02</internalNodes>
          <leafValues>
            -8.5098393261432648e-02 7.1455049514770508e-01</leafValues></_>
        <_>
          <internalNodes>
            0 -1 606 6.3962710555642843e-05</internalNodes>
          <leafValues>
            1.7208330333232880e-01 -4.8882892727851868e-01</leafValues></_>
        <_>
          <internalNodes>
            0 -1 607 -8.7718872237019241e-05</internalNodes>
          <leafValues>
            -6.0744917392730713e-01 8.8175259530544281e-02</leafValues></_>
        <_>
          <internalNodes>
            0 -1 451 1.2862854637205601e-02</internalNodes>
          <leafValues>
            -3.9076709747314453e-01 2.3066534101963043e-01</leafValues></_>
        <_>
          <internalNodes>
            0 -1 281 -1.3901558704674244e-03</internalNodes>
          <leafValues>
            2.8248879313468933e-01 -2.0403349399566650e-01</leafValues></_>
        <_>
          <internalNodes>
            0 -1 535 -9.5944646745920181e-03</internalNodes>
          <leafValues>
            2.9387030005455017e-01 -2.2537405788898468e-01</leafValues></_>
        <_>
          <internalNodes>
            0 -1 432 -9.5164679805748165e-05</internalNodes>
          <leafValues>
            -4.7872465848922729e-01 1.4191947877407074e-01</leafValues></_>
        <_>
          <internalNodes>
            0 -1 138 3.2304540276527405e-02</internalNodes>
          <leafValues>
            -2.5484165549278259e-01 2.3924939334392548e-01</leafValues></_>
        <_>
          <internalNodes>
            0 -1 360 1.9870545715093613e-02</internalNodes>
          <leafValues>
            -9.5685333013534546e-02 6.4954882860183716e-01</leafValues></_>
        <_>
          <internalNodes>
            0 -1 152 -1.0546347766648978e-04</internalNodes>
          <leafValues>
            -4.8964312672615051e-01 1.3147604465484619e-01</leafValues></_>
        <_>
          <internalNodes>
            0 -1 96 2.6644743047654629e-03</internalNodes>
          <leafValues>
            -1.7010548710823059e-01 3.0052870512008667e-01</leafValues></_>
        <_>
          <internalNodes>
            0 -1 505 7.6024400186724961e-05</internalNodes>
          <leafValues>
            1.6722227632999420e-01 -3.3297461271286011e-01</leafValues></_>
        <_>
          <internalNodes>
            0 -1 570 7.4151845183223486e-04</internalNodes>
          <leafValues>
            -3.2858818769454956e-01 1.7885389924049377e-01</leafValues></_>
        <_>
          <internalNodes>
            0 -1 439 -1.5645263192709535e-04</internalNodes>
          <leafValues>
            3.2810354232788086e-01 -1.7411588132381439e-01</leafValues></_>
        <_>
          <internalNodes>
            0 -1 411 -1.6997757484205067e-04</internalNodes>
          <leafValues>
            2.8478157520294189e-01 -1.7261244356632233e-01</leafValues></_>
        <_>
          <internalNodes>
            0 -1 113 7.4336337856948376e-03</internalNodes>
          <leafValues>
            7.0865429937839508e-02 -7.3969888687133789e-01</leafValues></_>
        <_>
          <internalNodes>
            0 -1 488 5.9462961507961154e-04</internalNodes>
          <leafValues>
            2.3754708468914032e-01 -2.0790563523769379e-01</leafValues></_>
        <_>
          <internalNodes>
            0 -1 144 1.6955353785306215e-03</internalNodes>
          <leafValues>
            -4.0839073061943054e-01 1.1854169517755508e-01</leafValues></_>
        <_>
          <internalNodes>
            0 -1 202 5.7650459930300713e-03</internalNodes>
          <leafValues>
            -2.8800755739212036e-01 1.5667426586151123e-01</leafValues></_>
        <_>
          <internalNodes>
            0 -1 198 5.2030193805694580e-01</internalNodes>
          <leafValues>
            5.1659427583217621e-02 -8.0499386787414551e-01</leafValues></_>
        <_>
          <internalNodes>
            0 -1 162 1.7894165590405464e-02</internalNodes>
          <leafValues>
            -1.4927300810813904e-01 3.2040029764175415e-01</leafValues></_>
        <_>
          <internalNodes>
            0 -1 209 1.1868512956425548e-05</internalNodes>
          <leafValues>
            -5.9260612726211548e-01 9.7234725952148438e-02</leafValues></_>
        <_>
          <internalNodes>
            0 -1 334 5.0783706828951836e-03</internalNodes>
          <leafValues>
            -1.1406338214874268e-01 4.6288630366325378e-01</leafValues></_>
        <_>
          <internalNodes>
            0 -1 318 1.7454785108566284e-01</internalNodes>
          <leafValues>
            -1.2688767910003662e-01 3.7179705500602722e-01</leafValues></_>
        <_>
          <internalNodes>
            0 -1 437 -4.8015901120379567e-04</internalNodes>
          <leafValues>
            2.6837143301963806e-01 -2.2131592035293579e-01</leafValues></_>
        <_>
          <internalNodes>
            0 -1 350 7.2685442864894867e-03</internalNodes>
          <leafValues>
            -7.8400589525699615e-02 4.7913265228271484e-01</leafValues></_>
        <_>
          <internalNodes>
            0 -1 68 7.6251628343015909e-05</internalNodes>
          <leafValues>
            1.6059528291225433e-01 -2.8016474843025208e-01</leafValues></_>
        <_>
          <internalNodes>
            0 -1 295 1.3769365847110748e-02</internalNodes>
          <leafValues>
            5.3834807127714157e-02 -7.5489127635955811e-01</leafValues></_>
        <_>
          <internalNodes>
            0 -1 322 1.9956431060563773e-05</internalNodes>
          <leafValues>
            -1.9076390564441681e-01 2.6033532619476318e-01</leafValues></_>
        <_>
          <internalNodes>
            0 -1 314 2.8727465542033315e-04</internalNodes>
          <leafValues>
            -1.6534535586833954e-01 2.5190529227256775e-01</leafValues></_>
        <_>
          <internalNodes>
            0 -1 236 -1.0750988440122455e-04</internalNodes>
          <leafValues>
            -4.0902006626129150e-01 1.1173835396766663e-01</leafValues></_>
        <_>
          <internalNodes>
            0 -1 421 -1.1756234925996978e-05</internalNodes>
          <leafValues>
            2.6077777147293091e-01 -1.7990221083164215e-01</leafValues></_></weakClassifiers></_>
    <!-- stage 22 -->
    <_>
      <maxWeakCount>32</maxWeakCount>
      <stageThreshold>-7.2840720415115356e-01</stageThreshold>
      <weakClassifiers>
        <_>
          <internalNodes>
            0 -1 386 5.0396621227264404e-02</internalNodes>
          <leafValues>
            -7.3239438235759735e-02 5.1193940639495850e-01</leafValues></_>
        <_>
          <internalNodes>
            0 -1 151 4.2482940480113029e-03</internalNodes>
          <leafValues>
            -1.9972653687000275e-01 4.0290981531143188e-01</leafValues></_>
        <_>
          <internalNodes>
            0 -1 28 -3.5592988133430481e-03</internalNodes>
          <leafValues>
            -5.8244711160659790e-01 1.1993663012981415e-01</leafValues></_>
        <_>
          <internalNodes>
            0 -1 538 3.4565575420856476e-02</internalNodes>
          <leafValues>
            -1.2780022621154785e-01 5.5570214986801147e-01</leafValues></_>
        <_>
          <internalNodes>
            0 -1 520 1.6666052397340536e-04</internalNodes>
          <leafValues>
            1.3282960653305054e-01 -4.5468604564666748e-01</leafValues></_>
        <_>
          <internalNodes>
            0 -1 49 -2.1862282883375883e-03</internalNodes>
          <leafValues>
            2.1014200150966644e-01 -3.6248323321342468e-01</leafValues></_>
        <_>
          <internalNodes>
            0 -1 419 2.4741401430219412e-03</internalNodes>
          <leafValues>
            -1.8982461094856262e-01 3.0767282843589783e-01</leafValues></_>
        <_>
          <internalNodes>
            0 -1 11 -5.4929172620177269e-03</internalNodes>
          <leafValues>
            2.7838122844696045e-01 -1.8600794672966003e-01</leafValues></_>
        <_>
          <internalNodes>
            0 -1 588 1.6172897070646286e-02</internalNodes>
          <leafValues>
            5.6340768933296204e-02 -6.4172214269638062e-01</leafValues></_>
        <_>
          <internalNodes>
            0 -1 75 -9.0651260688900948e-04</internalNodes>
          <leafValues>
            -4.1297736763954163e-01 1.0304656624794006e-01</leafValues></_>
        <_>
          <internalNodes>
            0 -1 55 8.8019259274005890e-02</internalNodes>
          <leafValues>
            -1.1189378052949905e-01 4.7543358802795410e-01</leafValues></_>
        <_>
          <internalNodes>
            0 -1 257 6.5463515929877758e-03</internalNodes>
          <leafValues>
            -2.4910834431648254e-01 1.9951634109020233e-01</leafValues></_>
        <_>
          <internalNodes>
            0 -1 338 1.7465860582888126e-04</internalNodes>
          <leafValues>
            1.2765331566333771e-01 -3.6474540829658508e-01</leafValues></_>
        <_>
          <internalNodes>
            0 -1 231 -1.7927201464772224e-02</internalNodes>
          <leafValues>
            6.7783582210540771e-01 -6.8733327090740204e-02</leafValues></_>
        <_>
          <internalNodes>
            0 -1 42 -2.4862747639417648e-02</internalNodes>
          <leafValues>
            1.4990641176700592e-01 -3.2769367098808289e-01</leafValues></_>
        <_>
          <internalNodes>
            0 -1 531 -4.0111324778990820e-05</internalNodes>
          <leafValues>
            3.3276882767677307e-01 -1.4064671099185944e-01</leafValues></_>
        <_>
          <internalNodes>
            0 -1 385 4.4777734728995711e-05</internalNodes>
          <leafValues>
            -2.0229180157184601e-01 2.1167661249637604e-01</leafValues></_>
        <_>
          <internalNodes>
            0 -1 583 -6.6282355692237616e-04</internalNodes>
          <leafValues>
            -1. 4.8484493046998978e-02</leafValues></_>
        <_>
          <internalNodes>
            0 -1 337 -4.1378301830263808e-05</internalNodes>
          <leafValues>
            2.1212038397789001e-01 -2.2455151379108429e-01</leafValues></_>
        <_>
          <internalNodes>
            0 -1 445 -1.1553616786841303e-04</internalNodes>
          <leafValues>
            -4.1299200057983398e-01 1.0537212342023849e-01</leafValues></_>
        <_>
          <internalNodes>
            0 -1 105 6.2919873744249344e-03</internalNodes>
          <leafValues>
            3.9928946644067764e-02 -8.0688804388046265e-01</leafValues></_>
        <_>
          <internalNodes>
            0 -1 379 8.4191234782338142e-04</internalNodes>
          <leafValues>
            -1.4305227994918823e-01 2.8858554363250732e-01</leafValues></_>
        <_>
          <internalNodes>
            0 -1 378 -1.9965507090091705e-04</internalNodes>
          <leafValues>
            3.6710110306739807e-01 -1.1215713620185852e-01</leafValues></_>
        <_>
          <internalNodes>
            0 -1 405 3.0577244237065315e-02</internalNodes>
          <leafValues>
            -3.2448813319206238e-01 1.3226880133152008e-01</leafValues></_>
        <_>
          <internalNodes>
            0 -1 175 1.0375395417213440e-01</internalNodes>
          <leafValues>
            -1.1656519770622253e-01 3.5863131284713745e-01</leafValues></_>
        <_>
          <internalNodes>
            0 -1 140 -2.5711164344102144e-03</internalNodes>
          <leafValues>
            3.2065773010253906e-01 -1.1936780810356140e-01</leafValues></_>
        <_>
          <internalNodes>
            0 -1 108 -6.7295785993337631e-03</internalNodes>
          <leafValues>
            -6.3819420337677002e-01 7.2769798338413239e-02</leafValues></_>
        <_>
          <internalNodes>
            0 -1 461 -6.0122553259134293e-03</internalNodes>
          <leafValues>
            -6.2395751476287842e-01 6.1665724962949753e-02</leafValues></_>
        <_>
          <internalNodes>
            0 -1 429 -1.5906717162579298e-03</internalNodes>
          <leafValues>
            4.3592771887779236e-01 -9.1626003384590149e-02</leafValues></_>
        <_>
          <internalNodes>
            0 -1 494 1.1649561201920733e-05</internalNodes>
          <leafValues>
            -1.8744912743568420e-01 1.9807104766368866e-01</leafValues></_>
        <_>
          <internalNodes>
            0 -1 239 6.0359547205734998e-05</internalNodes>
          <leafValues>
            9.5356017351150513e-02 -4.4641333818435669e-01</leafValues></_>
        <_>
          <internalNodes>
            0 -1 493 1.5645435778424144e-03</internalNodes>
          <leafValues>
            1.3457697629928589e-01 -2.8057742118835449e-01</leafValues></_></weakClassifiers></_>
    <!-- stage 23 -->
    <_>
      <maxWeakCount>32</maxWeakCount>
      <stageThreshold>-8.4498041868209839e-01</stageThreshold>
      <weakClassifiers>
        <_>
          <internalNodes>
            0 -1 97 2.6774671860039234e-03</internalNodes>
          <leafValues>
            -1.8450184166431427e-01 4.9177718162536621e-01</leafValues></_>
        <_>
          <internalNodes>
            0 -1 270 6.9148480892181396e-02</internalNodes>
          <leafValues>
            -2.6519137620925903e-01 3.1742253899574280e-01</leafValues></_>
        <_>
          <internalNodes>
            0 -1 232 1.3003015890717506e-02</internalNodes>
          <leafValues>
            -6.6558003425598145e-01 1.0639405250549316e-01</leafValues></_>
        <_>
          <internalNodes>
            0 -1 31 -6.0802251100540161e-02</internalNodes>
          <leafValues>
            4.7685006260871887e-01 -1.3609294593334198e-01</leafValues></_>
        <_>
          <internalNodes>
            0 -1 599 -6.8032357376068830e-05</internalNodes>
          <leafValues>
            -5.2980822324752808e-01 1.0817554593086243e-01</leafValues></_>
        <_>
          <internalNodes>
            0 -1 546 2.3683183826506138e-05</internalNodes>
          <leafValues>
            -2.2879506647586823e-01 2.5345778465270996e-01</leafValues></_>
        <_>
          <internalNodes>
            0 -1 530 4.7790541430003941e-05</internalNodes>
          <leafValues>
            7.6694354414939880e-02 -5.3405857086181641e-01</leafValues></_>
        <_>
          <internalNodes>
            0 -1 194 4.9764537811279297e-01</internalNodes>
          <leafValues>
            4.7971904277801514e-02 -7.7951461076736450e-01</leafValues></_>
        <_>
          <internalNodes>
            0 -1 572 8.7168265599757433e-04</internalNodes>
          <leafValues>
            -2.5187754631042480e-01 2.0759436488151550e-01</leafValues></_>
        <_>
          <internalNodes>
            0 -1 393 -2.0671851234510541e-04</internalNodes>
          <leafValues>
            2.9950192570686340e-01 -1.4474797248840332e-01</leafValues></_>
        <_>
          <internalNodes>
            0 -1 155 -8.0859797890298069e-05</internalNodes>
          <leafValues>
            -4.2551738023757935e-01 1.0194113850593567e-01</leafValues></_>
        <_>
          <internalNodes>
            0 -1 528 2.4686673656105995e-02</internalNodes>
          <leafValues>
            -9.6531279385089874e-02 4.6358260512351990e-01</leafValues></_>
        <_>
          <internalNodes>
            0 -1 518 7.4193223554175347e-05</internalNodes>
          <leafValues>
            1.6164699196815491e-01 -3.5482797026634216e-01</leafValues></_>
        <_>
          <internalNodes>
            0 -1 387 3.0730396974831820e-03</internalNodes>
          <leafValues>
            -1.5789584815502167e-01 2.9730513691902161e-01</leafValues></_>
        <_>
          <internalNodes>
            0 -1 440 2.7590933314058930e-05</internalNodes>
          <leafValues>
            -1.9829373061656952e-01 2.2110019624233246e-01</leafValues></_>
        <_>
          <internalNodes>
            0 -1 457 -2.5076777092181146e-05</internalNodes>
          <leafValues>
            2.6397550106048584e-01 -1.7720855772495270e-01</leafValues></_>
        <_>
          <internalNodes>
            0 -1 298 1.5324989333748817e-02</internalNodes>
          <leafValues>
            -1.0527363419532776e-01 3.9389631152153015e-01</leafValues></_>
        <_>
          <internalNodes>
            0 -1 485 3.2039009965956211e-04</internalNodes>
          <leafValues>
            -1.2780164182186127e-01 3.2706630229949951e-01</leafValues></_>
        <_>
          <internalNodes>
            0 -1 354 3.0858308076858521e-02</internalNodes>
          <leafValues>
            5.3365603089332581e-02 -8.0626714229583740e-01</leafValues></_>
        <_>
          <internalNodes>
            0 -1 261 7.5161717832088470e-03</internalNodes>
          <leafValues>
            3.9229489862918854e-02 -8.3503580093383789e-01</leafValues></_>
        <_>
          <internalNodes>
            0 -1 56 3.8146245479583740e-01</internalNodes>
          <leafValues>
            4.0019012987613678e-02 -8.0855971574783325e-01</leafValues></_>
        <_>
          <internalNodes>
            0 -1 127 2.3459322750568390e-02</internalNodes>
          <leafValues>
            -7.9261794686317444e-02 5.9650981426239014e-01</leafValues></_>
        <_>
          <internalNodes>
            0 -1 35 -4.7461921349167824e-04</internalNodes>
          <leafValues>
            2.1921336650848389e-01 -2.2635458409786224e-01</leafValues></_>
        <_>
          <internalNodes>
            0 -1 254 9.8139140754938126e-03</internalNodes>
          <leafValues>
            -9.9114760756492615e-02 4.7759065032005310e-01</leafValues></_>
        <_>
          <internalNodes>
            0 -1 67 -9.6883726655505598e-05</internalNodes>
          <leafValues>
            -2.9838442802429199e-01 1.5064260363578796e-01</leafValues></_>
        <_>
          <internalNodes>
            0 -1 84 1.3785434886813164e-02</internalNodes>
          <leafValues>
            7.8817792236804962e-02 -5.0719702243804932e-01</leafValues></_>
        <_>
          <internalNodes>
            0 -1 78 2.2694226936437190e-04</internalNodes>
          <leafValues>
            7.9365119338035583e-02 -5.2530252933502197e-01</leafValues></_>
        <_>
          <internalNodes>
            0 -1 349 1.6152334865182638e-04</internalNodes>
          <leafValues>
            -7.6439283788204193e-02 5.7492959499359131e-01</leafValues></_>
        <_>
          <internalNodes>
            0 -1 186 1.3687988976016641e-03</internalNodes>
          <leafValues>
            -4.8640254139900208e-01 9.5504559576511383e-02</leafValues></_>
        <_>
          <internalNodes>
            0 -1 529 5.6441014748997986e-05</internalNodes>
          <leafValues>
            1.4789205789566040e-01 -2.7404451370239258e-01</leafValues></_>
        <_>
          <internalNodes>
            0 -1 438 1.0837353765964508e-01</internalNodes>
          <leafValues>
            -1.4720778167247772e-01 3.1035968661308289e-01</leafValues></_>
        <_>
          <internalNodes>
            0 -1 345 2.0990351215004921e-02</internalNodes>
          <leafValues>
            -4.6707656234502792e-02 8.7464904785156250e-01</leafValues></_></weakClassifiers></_>
    <!-- stage 24 -->
    <_>
      <maxWeakCount>34</maxWeakCount>
      <stageThreshold>-6.9896101951599121e-01</stageThreshold>
      <weakClassifiers>
        <_>
          <internalNodes>
            0 -1 228 1.2260477989912033e-02</internalNodes>
          <leafValues>
            -4.3879907578229904e-02 5.5413198471069336e-01</leafValues></_>
        <_>
          <internalNodes>
            0 -1 122 9.2067010700702667e-03</internalNodes>
          <leafValues>
            -2.1149402856826782e-01 3.9270907640457153e-01</leafValues></_>
        <_>
          <internalNodes>
            0 -1 72 8.8727399706840515e-03</internalNodes>
          <leafValues>
            -5.7495981454849243e-01 1.2768691778182983e-01</leafValues></_>
        <_>
          <internalNodes>
            0 -1 515 5.9123121201992035e-02</internalNodes>
          <leafValues>
            -1.0424957424402237e-01 6.3428622484207153e-01</leafValues></_>
        <_>
          <internalNodes>
            0 -1 283 6.0807503759860992e-02</internalNodes>
          <leafValues>
            -3.0437722802162170e-01 2.9447212815284729e-01</leafValues></_>
        <_>
          <internalNodes>
            0 -1 1 3.9167847717180848e-05</internalNodes>
          <leafValues>
            1.1758467555046082e-01 -5.1220172643661499e-01</leafValues></_>
        <_>
          <internalNodes>
